digraph Tree {
node [shape=box, fontname="helvetica"] ;
edge [fontname="helvetica"] ;
0 [label="X[2] <= 73.5\ngini = 0.327\nsamples = 16000\nvalue = [12704, 3296]\nclass = 0"] ;
1 [label="X[8] <= 170314.883\ngini = 0.326\nsamples = 15891\nvalue = [12631, 3260]\nclass = 0"] ;
0 -> 1 [labeldistance=2.5, labelangle=45, headlabel="True"] ;
2 [label="X[3] <= 6.5\ngini = 0.322\nsamples = 13497\nvalue = [10777, 2720]\nclass = 0"] ;
1 -> 2 ;
3 [label="X[8] <= 169637.5\ngini = 0.329\nsamples = 8777\nvalue = [6958, 1819]\nclass = 0"] ;
2 -> 3 ;
4 [label="X[11] <= 0.5\ngini = 0.329\nsamples = 8746\nvalue = [6927, 1819]\nclass = 0"] ;
3 -> 4 ;
5 [label="gini = 0.322\nsamples = 6588\nvalue = [5258, 1330]\nclass = 0"] ;
4 -> 5 ;
6 [label="gini = 0.351\nsamples = 2158\nvalue = [1669, 489]\nclass = 0"] ;
4 -> 6 ;
7 [label="gini = 0.0\nsamples = 31\nvalue = [31, 0]\nclass = 0"] ;
3 -> 7 ;
8 [label="X[8] <= 6316.88\ngini = 0.309\nsamples = 4720\nvalue = [3819, 901]\nclass = 0"] ;
2 -> 8 ;
9 [label="X[2] <= 34.5\ngini = 0.208\nsamples = 187\nvalue = [165, 22]\nclass = 0"] ;
8 -> 9 ;
10 [label="gini = 0.287\nsamples = 75\nvalue = [62, 13]\nclass = 0"] ;
9 -> 10 ;
11 [label="gini = 0.148\nsamples = 112\nvalue = [103, 9]\nclass = 0"] ;
9 -> 11 ;
12 [label="X[0] <= 433.5\ngini = 0.313\nsamples = 4533\nvalue = [3654, 879]\nclass = 0"] ;
8 -> 12 ;
13 [label="gini = 0.124\nsamples = 60\nvalue = [56, 4]\nclass = 0"] ;
12 -> 13 ;
14 [label="gini = 0.315\nsamples = 4473\nvalue = [3598, 875]\nclass = 0"] ;
12 -> 14 ;
15 [label="X[4] <= 114484.145\ngini = 0.349\nsamples = 2394\nvalue = [1854, 540]\nclass = 0"] ;
1 -> 15 ;
16 [label="X[7] <= 0.5\ngini = 0.323\nsamples = 1503\nvalue = [1198, 305]\nclass = 0"] ;
15 -> 16 ;
17 [label="X[8] <= 177812.297\ngini = 0.358\nsamples = 741\nvalue = [568, 173]\nclass = 0"] ;
16 -> 17 ;
18 [label="gini = 0.278\nsamples = 198\nvalue = [165, 33]\nclass = 0"] ;
17 -> 18 ;
19 [label="gini = 0.383\nsamples = 543\nvalue = [403, 140]\nclass = 0"] ;
17 -> 19 ;
20 [label="X[5] <= 3.5\ngini = 0.286\nsamples = 762\nvalue = [630, 132]\nclass = 0"] ;
16 -> 20 ;
21 [label="gini = 0.282\nsamples = 755\nvalue = [627, 128]\nclass = 0"] ;
20 -> 21 ;
22 [label="gini = 0.49\nsamples = 7\nvalue = [3, 4]\nclass = 1"] ;
20 -> 22 ;
23 [label="X[8] <= 171063.586\ngini = 0.388\nsamples = 891\nvalue = [656, 235]\nclass = 0"] ;
15 -> 23 ;
24 [label="X[1] <= 0.5\ngini = 0.491\nsamples = 23\nvalue = [10, 13]\nclass = 1"] ;
23 -> 24 ;
25 [label="gini = 0.375\nsamples = 12\nvalue = [3, 9]\nclass = 1"] ;
24 -> 25 ;
26 [label="gini = 0.463\nsamples = 11\nvalue = [7, 4]\nclass = 0"] ;
24 -> 26 ;
27 [label="X[4] <= 190389.188\ngini = 0.381\nsamples = 868\nvalue = [646, 222]\nclass = 0"] ;
23 -> 27 ;
28 [label="gini = 0.376\nsamples = 856\nvalue = [641, 215]\nclass = 0"] ;
27 -> 28 ;
29 [label="gini = 0.486\nsamples = 12\nvalue = [5, 7]\nclass = 1"] ;
27 -> 29 ;
30 [label="X[0] <= 434.5\ngini = 0.442\nsamples = 109\nvalue = [73, 36]\nclass = 0"] ;
0 -> 30 [labeldistance=2.5, labelangle=-45, headlabel="False"] ;
31 [label="gini = 0.0\nsamples = 2\nvalue = [0, 2]\nclass = 1"] ;
30 -> 31 ;
32 [label="X[8] <= 172543.961\ngini = 0.434\nsamples = 107\nvalue = [73, 34]\nclass = 0"] ;
30 -> 32 ;
33 [label="X[1] <= 0.5\ngini = 0.465\nsamples = 87\nvalue = [55, 32]\nclass = 0"] ;
32 -> 33 ;
34 [label="X[8] <= 70338.191\ngini = 0.495\nsamples = 42\nvalue = [23, 19]\nclass = 0"] ;
33 -> 34 ;
35 [label="gini = 0.444\nsamples = 24\nvalue = [16, 8]\nclass = 0"] ;
34 -> 35 ;
36 [label="gini = 0.475\nsamples = 18\nvalue = [7, 11]\nclass = 1"] ;
34 -> 36 ;
37 [label="X[2] <= 77.5\ngini = 0.411\nsamples = 45\nvalue = [32, 13]\nclass = 0"] ;
33 -> 37 ;
38 [label="gini = 0.48\nsamples = 30\nvalue = [18, 12]\nclass = 0"] ;
37 -> 38 ;
39 [label="gini = 0.124\nsamples = 15\nvalue = [14, 1]\nclass = 0"] ;
37 -> 39 ;
40 [label="X[4] <= 76780.986\ngini = 0.18\nsamples = 20\nvalue = [18, 2]\nclass = 0"] ;
32 -> 40 ;
41 [label="X[2] <= 77.0\ngini = 0.408\nsamples = 7\nvalue = [5, 2]\nclass = 0"] ;
40 -> 41 ;
42 [label="gini = 0.5\nsamples = 4\nvalue = [2, 2]\nclass = 0"] ;
41 -> 42 ;
43 [label="gini = 0.0\nsamples = 3\nvalue = [3, 0]\nclass = 0"] ;
41 -> 43 ;
44 [label="gini = 0.0\nsamples = 13\nvalue = [13, 0]\nclass = 0"] ;
40 -> 44 ;
}